-0.29 -0.27 0.58 -0.20 0.84 -0.57 0.84 0.93 0.07 0.06
-0.48 -0.78 0.41 0.65 0.75 0.21 -0.86 0.27 0.50 -0.77
0.86 -0.04 -0.68 0.10 0.66 0.78 0.59 0.15 0.36 0.25
-0.86 -0.76 0.63 -0.99 -0.79 0.84 0.08 0.27 -0.40 0.07
-0.14 0.20 0.28 0.15 0.12 0.93 0.75 -0.63 -0.32 -0.21
0.43 0.74 -0.15 -0.72 0.40 -0.27 -0.87 0.16 -0.79 0.91
-0.45 -0.76 -0.49 -0.26 -0.34 0.76 -0.57 -0.82 0.91 0.02
-0.11 -0.33 0.32 0.32 0.84 -0.37 -0.90 0.44 -0.84 -0.92
0.92 -0.97 -0.45 -0.38 0.53 0.98 -0.44 -0.73 0.38 -0.75
-0.94 -0.45 -0.39 0.24 -0.05 0.75 0.04 -0.38 0.33 -0.35
0.68 -0.81 -0.31 -0.14 0.03 0.42 -0.17 -0.09 0.08 -0.45
-0.21 -0.27 0.72 -0.37 0.16 0.78 0.47 -0.27 0.56 0.34
-0.15 -1.00 -0.84 0.97 -0.44 0.21 -0.49 0.84 0.98 0.19
-0.03 -0.77 -0.24 -0.03 -0.51 0.84 0.62 -0.33 0.66 0.13
-0.76 -0.29 -0.45 0.75 0.77 -0.67 0.99 -0.34 -0.27 -0.50
-0.67 0.88 -0.95 0.74 0.76 -0.64 0.21 -0.16 -0.16 0.35
-0.22 0.34 -0.12 0.92 0.58 -0.77 0.86 0.37 -0.69 0.55
0.27 0.84 0.35 -0.33 -0.24 0.70 0.41 0.59 0.98 0.83
-0.60 -0.40 -0.82 -0.06 -0.40 0.18 -0.73 0.38 -0.14 -0.09
-0.07 -0.61 0.12 0.53 -0.54 0.63 0.06 -0.40 0.54 0.88
0.57 -0.69 0.23 0.27 0.54 0.07 0.86 0.03 0.35 0.50
-0.09 -0.37 -0.74 -0.09 0.98 -0.65 0.49 -0.26 -0.83 -0.15
0.73 -0.54 -0.02 -0.45 -0.85 0.82 0.62 -0.70 0.22 -0.44
0.20 -0.41 -0.62 0.39 0.07 0.18 0.15 0.31 0.63 0.70
-0.53 0.91 0.07 0.42 -0.88 -0.24 0.02 0.69 0.77 -0.30
-0.75 0.66 0.29 -0.97 -0.28 0.78 0.92 0.30 -0.24 0.09
-0.80 0.42 -0.38 -0.19 0.42 -0.86 0.12 0.86 -0.73 0.68
-0.78 0.80 0.98 -0.95 -0.54 -0.24 0.39 0.12 0.09 0.12
0.83 -0.96 -0.36 0.82 0.64 -0.30 -0.03 0.40 0.80 -0.83
0.99 -0.95 -0.56 0.24 0.53 -0.07 0.06 -0.41 0.47 -0.57
0.94 0.85 -0.94 -0.11 -0.62 -0.92 -0.03 -1.00 -0.52 -0.37
-0.18 -0.22 0.96 0.91 -0.45 0.80 0.99 0.13 -0.82 -0.89
-0.47 -0.12 -0.81 -0.73 0.86 -0.35 0.70 -0.24 0.09 0.03
-0.54 -0.40 -0.18 -0.31 0.55 0.24 0.80 -0.61 -0.01 -0.19
0.95 -0.42 -0.96 0.14 -0.92 -0.58 -0.89 -0.09 -0.71 0.86
0.51 -0.01 -0.83 -0.31 -0.71 -0.80 -0.63 -0.23 0.21 0.03
0.99 -0.75 -0.80 -0.40 -0.80 -0.34 0.42 -0.41 0.12 0.19
-0.47 -0.68 -0.24 0.74 -0.25 -0.15 -0.60 -0.07 -0.57 -0.29
-0.31 0.85 0.59 0.69 -1.14 -0.03 0.10 0.44 -0.39 0.54
-0.77 -0.59 0.22 0.26 -0.62 -0.10 -0.54 -0.31 0.98 -0.21
0.86 -0.87 -1.02 0.08 -1.19 0.43 1.09 0.82 -0.85 -0.40
0.64 0.71 0.30 -0.44 -1.09 -0.80 0.08 -0.40 0.97 0.81
-0.59 -0.49 0.11 0.25 -0.38 0.01 0.40 0.12 0.15 -0.28
-0.59 0.31 -1.14 -0.68 -1.19 -0.12 0.34 0.05 -0.71 0.01
-0.38 -0.61 -0.77 -0.55 -0.82 -0.05 -0.82 0.12 -0.42 0.59
0.78 -0.34 0.31 0.49 -0.13 -0.18 0.33 -0.66 0.48 0.74
0.81 -0.39 -0.84 0.02 -0.86 -0.50 0.31 -0.29 -0.08 0.02
0.83 -0.97 0.08 -0.15 0.17 -0.09 -0.63 0.50 0.98 -0.35
0.08 -0.93 0.23 0.03 -0.46 0.37 0.64 0.67 0.79 0.01
-0.39 0.70 -0.39 -0.28 0.15 -0.79 -0.15 0.27 -0.95 0.23
-0.45 -0.67 0.98 0.57 -0.72 0.16 -0.84 0.71 0.60 -0.13
0.70 0.85 -0.78 0.19 -0.62 -0.29 0.03 -0.65 -0.08 0.33
-0.04 -0.18 -0.63 0.08 -0.04 -0.67 -0.51 -0.27 -0.63 0.77
-0.76 -0.59 -0.20 0.53 0.89 0.23 0.46 -0.91 -0.07 -0.53
0.10 0.18 -0.53 0.90 -0.65 -0.82 -0.17 0.51 0.25 0.52
0.88 -0.29 0.81 0.38 -0.56 0.72 -0.31 0.83 0.76 0.15
0.46 0.87 -0.14 -0.89 0.06 -0.73 0.42 -0.39 -0.63 0.22
-0.18 0.81 0.72 0.74 0.68 -0.42 0.37 0.17 0.24 -0.01
-0.71 0.55 0.64 0.03 0.75 -0.35 -0.44 -0.41 -0.10 0.42
-0.43 0.20 0.61 -0.82 -0.84 0.74 0.92 0.63 -0.61 0.77
0.42 0.40 0.94 -0.32 -0.36 -0.39 0.53 0.31 0.51 0.64
-0.27 0.11 0.24 -0.53 -0.73 -0.84 0.99 0.01 -0.74 0.53
-0.26 0.92 -0.89 -0.97 0.66 0.34 0.84 -0.63 0.39 0.53
0.02 0.81 -0.16 -0.18 -0.01 0.46 1.16 -0.63 -0.07 -0.84
-0.83 -0.41 -0.73 0.46 -0.86 -0.09 -0.06 -0.02 0.72 0.76
-0.03 -0.64 0.93 -0.84 -0.02 -0.99 0.72 0.19 0.14 -0.71
-0.36 0.12 -0.53 0.22 -1.40 -1.05 1.01 0.70 0.23 0.43
0.27 -0.34 0.22 -0.95 -1.31 0.14 1.09 -0.32 0.14 0.78
-1.31 0.26 -1.42 -0.52 -2.23 -0.64 0.45 -0.71 -0.99 0.59
0.18 -0.58 -0.38 -0.71 -1.39 -0.22 0.04 0.67 -0.91 0.22
-0.72 0.65 -1.73 -0.74 -0.61 0.17 1.18 0.22 -0.93 -0.34
-0.02 0.86 -0.28 0.04 -1.64 -0.68 -0.14 -0.42 -0.29 0.36
-1.50 -0.16 -0.54 0.29 -1.15 -0.59 1.05 0.02 -0.42 0.40
-0.89 -0.85 -1.71 0.56 -1.24 0.11 0.23 -0.85 0.65 0.58
-1.43 -0.13 -1.26 -0.77 0.11 -0.71 0.38 0.99 -0.60 -0.07
-0.75 -0.28 -0.87 0.39 -0.43 -0.50 0.90 0.42 0.29 0.32
0.38 0.52 -0.99 0.62 0.68 -0.60 0.55 -0.27 0.39 0.15
0.42 0.01 0.67 -0.14 0.46 0.19 1.10 -0.98 0.24 -0.71
0.56 -0.04 -1.09 -0.54 0.93 -0.20 0.53 0.83 0.72 -0.32
-0.11 -0.19 0.64 0.21 -0.57 -0.90 -0.22 -0.74 0.39 -0.69
0.20 0.56 -0.35 0.15 -0.48 0.05 0.97 -0.95 -0.35 -0.95
0.35 -0.04 0.62 0.24 -0.58 0.62 0.82 0.20 0.98 0.65
0.95 -0.80 -0.69 0.66 -0.47 -0.75 0.01 -0.92 -0.79 -0.20
-0.57 0.07 -0.73 0.43 0.18 -0.25 0.60 -0.09 -0.97 -0.06
0.45 0.86 -0.04 0.84 0.04 0.38 -0.27 0.92 -0.34 -0.70
0.83 -0.16 -0.46 0.15 -0.10 0.79 0.09 0.34 -0.07 -0.89
-0.28 0.80 -0.63 -0.60 -0.84 -0.19 0.89 -0.73 0.56 0.95
0.75 0.64 -0.69 0.49 0.33 -0.90 -0.47 0.17 0.56 -0.86
-0.17 -0.76 -0.28 -0.08 -0.00 0.41 0.31 -0.32 -0.45 0.98
-0.63 0.64 0.20 0.43 -0.20 0.24 0.10 -0.62 -0.20 -0.61
-0.63 0.52 0.83 -0.11 0.15 0.54 0.64 -0.78 0.03 -0.76
-0.45 0.01 -0.09 0.36 -0.21 -0.41 0.91 0.73 -0.37 -0.75
-1.26 0.45 -0.03 -0.68 -1.84 -0.71 0.85 -0.25 0.35 0.28
0.26 0.12 1.15 0.65 -0.97 -0.11 -0.71 -0.40 -0.81 -0.15
-1.18 -0.61 0.38 -0.58 -2.46 -0.96 -1.52 -0.31 0.34 0.11
-0.74 -0.55 0.90 0.80 -1.82 -0.71 -0.95 0.77 0.86 -0.57
-1.39 -0.89 0.99 -0.52 -3.24 -1.49 -1.16 -0.68 -0.37 0.16
-0.79 -1.10 1.01 0.27 -3.14 -0.42 0.08 0.18 -0.99 -0.60
-1.22 -0.85 0.43 1.05 -2.59 -1.08 -0.40 0.44 -0.50 0.03
-0.43 -0.53 -0.81 0.92 -2.13 -1.43 0.16 0.17 -0.99 -1.34
-0.88 -1.21 -0.17 -0.50 -1.32 -0.89 0.38 -1.10 -0.35 -0.49
-0.76 0.43 0.07 1.34 -1.60 0.09 -0.10 0.81 -1.24 0.23
-1.24 -1.14 -1.20 -0.66 -0.56 -0.98 -0.10 0.16 0.45 -1.08
-1.02 -1.05 -0.47 -0.77 -1.69 -0.39 0.99 0.30 -1.01 -0.07
-0.87 -1.02 -1.05 -0.73 -0.91 -1.10 0.84 -0.12 0.50 0.31
-1.05 0.15 -0.91 -0.68 0.33 -0.21 0.45 0.43 -0.77 -0.75
-0.92 0.12 -0.50 -0.33 0.16 -0.58 0.96 0.56 0.27 0.05
0.31 0.73 -0.74 -0.41 -1.06 -0.80 1.23 0.96 -0.62 -0.90
0.92 0.40 -0.68 0.27 -0.43 -0.57 -0.30 -0.07 -0.14 -0.54
0.24 -0.04 -0.66 0.64 -0.41 -0.16 -0.38 0.14 -0.47 -0.29
-0.71 0.39 0.02 0.58 -0.79 0.49 -0.41 0.47 -0.78 0.94
-0.93 0.25 0.34 -0.43 0.99 0.03 0.68 0.10 -0.66 0.04
-0.22 0.53 -0.42 -0.68 0.69 0.54 -0.55 0.75 0.55 0.71
0.55 -0.31 0.13 -0.05 -0.54 0.04 -0.70 -0.34 0.88 0.93
0.41 0.29 0.73 0.99 -0.13 -0.59 -0.88 -0.77 0.23 0.25
0.79 0.16 0.76 0.09 0.12 -0.15 0.79 -0.16 -0.83 0.32
-0.88 0.96 -1.22 -0.08 0.34 -0.62 -0.28 -0.28 0.22 0.74
-0.70 -0.64 -0.84 0.59 0.71 -0.89 -0.82 -0.58 0.20 0.19
0.69 0.49 -0.24 1.24 -1.19 -0.36 -0.88 -0.00 0.31 -0.77
0.13 -1.07 0.63 0.55 -0.34 -1.41 -1.29 -0.39 0.11 0.30
-0.66 -1.01 -0.29 1.47 -0.98 -1.24 -1.02 -0.59 -0.47 0.18
-0.79 0.07 0.12 1.38 -2.25 -1.61 -1.15 -0.44 0.79 -1.25
-0.47 -0.54 0.64 0.61 -1.05 -0.89 0.37 -0.60 -0.50 0.12
-1.07 -1.25 0.09 0.90 -2.61 -0.32 -0.47 0.28 -0.52 0.16
-0.35 -0.84 0.40 1.02 -1.22 -0.62 -0.58 0.06 -0.80 -1.14
0.19 -0.81 0.31 1.52 -1.11 -0.65 -0.95 -0.38 -0.89 -1.46
0.15 -0.81 -0.41 1.26 -1.89 -0.71 0.03 0.13 -0.28 -1.21
-0.65 -0.17 -0.59 0.44 -0.64 -0.24 -1.08 -1.08 0.12 -1.90
-0.60 -0.81 0.34 0.13 -1.08 0.91 -0.71 -0.25 -0.76 -1.49
-0.29 -0.71 -0.23 0.08 -1.00 -0.98 0.75 -1.12 -0.66 -1.82
-0.16 -1.27 -0.08 0.92 -1.48 0.16 0.19 -0.55 -0.90 -0.65
0.19 -0.28 -0.03 -0.14 -0.33 -0.56 0.13 -0.38 -0.95 -0.26
-0.68 0.17 -0.72 -0.65 -0.69 -0.22 0.59 -0.68 -0.62 -0.63
-0.03 -0.09 -1.62 -0.99 0.61 0.61 0.38 0.12 0.10 -0.73
-0.72 -0.82 -0.93 -1.05 0.87 0.57 0.97 0.61 -0.60 0.65
-0.27 -0.04 -1.56 -1.01 -0.24 -0.10 0.48 -0.32 0.09 -0.31
-1.32 -0.65 -1.22 -0.79 -0.51 0.55 0.03 -0.13 -0.69 0.20
-0.05 0.14 0.66 -0.13 -0.28 -0.35 -0.71 -0.67 -0.21 -0.80
0.59 -0.85 -0.18 0.55 0.18 -0.78 0.88 0.30 0.12 -0.98
0.52 0.25 -0.85 -0.50 -0.81 0.44 -0.70 0.65 0.45 0.30
-0.91 0.23 0.15 -0.73 0.89 -0.22 0.74 -0.18 -0.55 -0.19
0.38 -0.22 0.99 0.89 0.29 -0.96 -0.76 0.26 -0.90 -0.70
0.34 -0.65 -0.78 -0.52 0.47 -0.36 -0.68 0.77 0.15 0.70
0.12 -0.82 -0.75 0.34 0.48 -0.64 -0.41 -0.41 0.18 0.41
0.83 -0.50 -0.42 -0.39 -0.58 -0.37 0.48 -0.76 -0.19 -1.02
-0.45 0.06 -0.19 2.31 -0.23 -2.14 -0.69 0.24 0.59 -0.39
-1.38 0.39 -0.06 0.87 0.47 -1.73 -1.09 -0.79 0.74 0.22
-0.63 -0.59 1.21 0.25 -0.35 -1.57 -2.09 -1.34 -0.38 -1.00
-0.85 -1.04 0.53 -0.32 -0.14 -1.11 1.08 0.03 0.14 -0.79
-0.09 -1.00 0.23 -0.25 -0.39 -0.30 -0.09 -0.75 -1.12 -1.73
0.91 -0.37 0.62 0.72 -0.75 0.44 0.48 -1.46 -0.09 -1.99
0.02 -0.75 0.74 -0.07 0.31 -0.07 -1.56 -2.06 -0.49 -2.00
-0.06 -1.37 0.76 1.07 -0.61 -0.38 -0.72 -2.29 -0.15 -2.29
0.57 -0.10 0.56 -0.78 -2.52 -0.80 -1.18 -1.82 0.43 -3.28
0.82 0.44 1.08 -0.31 0.18 -0.61 -1.18 -2.38 0.54 -4.59
-0.08 0.35 0.58 0.88 -0.07 -0.90 -1.25 -0.92 -0.69 -5.79
1.47 -0.15 1.36 0.03 0.35 -0.20 -0.99 -2.21 0.63 -5.79
-0.34 -1.62 0.50 -0.47 0.04 0.32 -0.44 -2.79 -0.45 -3.02
0.39 0.20 0.51 -0.77 -0.42 0.45 -0.26 -3.25 1.22 -2.52
-0.47 0.12 -0.03 0.09 -0.20 0.22 0.18 -2.80 -0.56 -1.35
0.11 0.26 0.55 -0.47 0.94 0.78 0.49 -1.13 0.60 -1.98
-0.66 0.34 0.70 -2.49 0.30 0.27 0.13 -1.13 -0.29 -1.05
1.06 0.96 -0.06 -1.98 0.95 1.06 0.28 0.13 -0.30 -0.43
-1.22 0.55 -0.75 -1.71 0.96 1.37 -0.55 -0.51 -1.10 -1.61
-1.16 0.67 -0.52 -0.87 -0.28 0.09 -0.83 0.43 -0.34 0.05
-0.04 -0.30 -0.18 -0.75 -0.93 0.05 -0.19 0.80 -0.45 -0.55
0.29 0.34 -0.46 -0.83 0.33 0.47 0.46 0.94 0.03 -0.05
0.19 0.58 -0.39 0.20 0.72 -0.77 -0.11 0.64 -0.70 0.49
-0.81 -0.55 0.72 0.64 0.38 -0.88 0.33 -0.69 0.22 0.05
-0.67 -0.60 0.14 0.35 0.09 0.51 -0.46 -0.14 -0.65 -0.19
-0.30 -0.82 0.59 0.56 0.13 -0.92 0.27 0.95 -0.56 0.60
-0.02 -0.54 -0.74 0.68 0.06 0.02 -1.00 0.38 0.45 -0.31
0.42 0.72 0.52 1.06 -0.13 -1.63 -1.03 0.38 -0.67 -0.48
-0.39 -1.11 -0.33 0.57 0.13 -0.27 -0.66 0.73 -0.62 -0.27
-1.04 -0.54 0.48 0.19 -0.33 -0.59 -1.02 0.96 0.41 -2.30
-0.32 -1.25 -0.52 -0.06 0.63 -0.86 -0.06 -0.56 0.27 -3.27
0.28 -2.55 -0.47 1.36 -1.06 -0.89 -0.72 0.61 0.03 -2.55
-1.05 -2.62 -0.56 0.70 -0.71 0.25 -0.25 -0.21 -0.88 -2.02
-0.14 -0.04 -0.61 0.19 -0.50 -0.80 -0.35 0.83 -0.42 -1.75
-0.83 0.57 0.41 0.71 -0.61 -0.53 -0.69 0.61 0.68 -0.28
-1.14 -1.53 0.13 0.60 -1.16 -0.40 -0.32 -0.69 -0.22 1.69
0.11 -0.74 0.40 1.41 -1.33 -0.21 -0.41 0.18 -0.58 1.70
-0.25 0.18 0.66 0.62 -1.47 0.71 -1.08 -0.75 0.25 1.45
0.17 -1.27 -0.13 0.14 -2.76 -0.84 -0.34 -0.03 0.70 1.30
-0.02 -0.44 0.58 1.45 -1.62 0.23 -1.53 0.20 -0.26 2.53
0.39 -0.53 -0.91 0.42 -0.55 -0.36 -1.48 -0.21 0.31 0.63
0.02 -0.88 -0.07 -0.08 -0.79 -0.11 -0.21 -0.17 -0.40 1.04
0.53 -1.06 -0.84 -1.03 -0.33 0.80 0.37 -0.82 0.36 -0.70
-0.86 0.37 -0.77 -0.80 0.05 0.51 0.06 -0.55 0.24 1.21
1.62 0.18 -0.10 0.05 0.34 0.79 -0.64 -0.03 -0.87 -1.66
-0.01 -0.67 -0.97 -1.60 1.36 0.78 -0.97 -0.73 -0.40 -2.83
0.04 0.28 -1.76 -2.54 2.18 0.65 -1.66 -1.30 0.21 -2.51
-1.14 -0.79 -1.10 -0.24 -0.95 1.96 -0.75 -0.65 -1.06 -1.77
-1.96 -1.30 -1.12 0.26 -0.46 1.33 -0.37 -0.10 -0.43 -0.75
-0.73 0.68 -0.65 -0.11 0.52 0.40 -0.18 -0.97 -0.59 -0.25
-0.09 -0.22 0.04 -0.87 0.48 0.51 -0.94 -0.42 -0.80 0.77
0.82 0.82 0.66 -0.57 0.88 -0.43 -0.18 -1.00 0.13 0.54
0.71 0.49 -0.50 -0.26 -0.89 -0.90 0.69 -0.00 -0.27 -0.82
-0.63 -0.29 -0.33 -0.17 0.49 0.60 -0.43 -0.56 0.92 -0.89
0.88 -0.15 0.42 0.17 0.08 -0.06 0.13 0.59 0.18 -0.79
-0.90 0.65 -0.97 0.80 0.47 -2.04 0.01 -0.60 -0.08 -1.18
0.22 -0.91 -0.50 1.36 -0.11 -1.40 -2.04 1.96 0.39 -2.80
0.48 0.01 0.43 -0.36 -0.32 -0.91 -0.52 1.14 -0.33 -2.14
-0.60 -2.07 0.35 -0.30 0.22 -0.27 0.04 0.36 -0.30 -2.71
-1.50 -1.67 1.18 0.59 0.88 0.34 -0.88 0.29 -0.70 -1.51
0.07 -0.85 1.33 0.44 0.43 0.00 -1.13 0.20 -0.00 -1.22
0.13 -0.18 -0.35 0.12 -0.50 1.18 -1.26 1.91 0.12 -0.63
1.28 -0.80 0.70 -0.39 -0.15 -0.25 0.18 0.44 -0.41 0.10
-0.56 0.25 -0.92 0.47 -1.80 0.29 -1.51 0.22 0.16 0.44
1.23 -1.16 1.56 -0.13 -0.78 -0.38 -0.52 0.46 -0.45 1.64
-0.50 -0.31 0.02 1.07 -1.22 -0.19 -0.91 -0.80 0.03 2.63
-0.07 -1.19 -0.70 0.94 -2.36 -0.59 -0.10 -0.45 -0.15 2.54
0.33 -0.42 -0.38 -0.11 -0.89 -0.33 -0.53 0.39 -0.20 2.23
0.49 -0.70 -0.31 0.26 -0.85 0.01 0.36 0.79 -0.44 0.10
0.74 -0.74 0.32 -0.18 -0.79 0.05 -0.98 1.05 0.66 1.47
1.15 0.71 0.10 0.39 -0.23 -0.26 -2.32 1.02 -0.85 0.05
0.66 0.01 -1.32 0.10 -0.22 0.21 -3.85 -0.01 0.35 0.06
-0.33 -0.34 -0.34 0.15 -0.14 1.47 -2.39 -0.58 -0.17 -0.64
-0.06 0.18 0.39 -1.85 0.39 1.06 -2.07 0.79 0.22 -1.73
-0.59 -0.89 -1.11 -2.42 0.19 0.86 -1.01 -0.44 0.42 -2.30
-1.22 -1.20 -1.45 -1.65 -0.01 2.01 -1.29 0.15 1.32 -1.25
-0.97 -0.54 -0.81 -0.91 -1.64 2.25 0.05 -0.27 -0.27 -1.00
0.03 0.52 0.78 -0.63 -1.43 0.46 -0.93 -0.39 0.43 -0.68
0.43 0.24 0.35 -0.57 -0.32 -0.20 0.14 -0.52 -0.37 -0.33
0.25 0.72 -0.77 -0.31 -0.81 -0.16 -0.11 -0.76 0.34 -0.15
0.82 -0.04 0.78 -0.18 0.79 -0.01 -0.37 0.92 0.49 -0.92
0.61 -0.76 -0.20 -0.11 -0.46 0.74 -0.17 0.45 0.13 -1.04
-0.29 0.84 -1.49 -1.34 -0.89 -0.88 0.15 -0.20 0.82 -0.54
-0.73 0.26 0.22 1.65 -0.02 -2.44 -1.36 0.60 0.56 -2.05
-1.31 -1.30 0.78 0.33 0.88 -1.50 -1.59 1.65 0.65 -1.69
0.35 0.16 -1.19 -0.70 -0.10 -0.54 -0.85 0.03 0.47 -0.79
0.31 -0.62 -1.31 0.14 0.42 -0.15 -0.55 3.21 0.07 -2.06
0.12 -1.62 -0.22 -0.15 -0.82 0.06 0.41 1.96 0.28 -0.37
-0.66 -2.19 0.16 -1.26 0.19 -0.09 -0.31 -0.44 0.78 0.35
-0.10 -0.32 0.35 0.61 -0.46 -0.12 -0.66 0.50 0.37 -0.28
-0.19 0.47 0.49 -1.03 -0.85 0.41 -0.16 1.81 -0.01 -1.44
0.68 0.29 0.16 0.72 -0.68 -0.38 -0.10 0.84 0.36 -0.43
-0.16 0.20 0.11 1.49 -1.07 -1.30 -0.30 -0.14 -0.71 0.55
-0.17 -0.65 -0.15 0.61 -2.48 -0.63 -1.54 -0.67 -0.50 1.56
-0.37 -0.13 -0.07 -0.32 -1.29 -0.14 -1.08 0.94 -0.19 1.69
2.28 -1.62 -0.18 -0.60 -1.29 -0.18 -1.37 0.63 0.50 0.96
0.11 0.52 -0.09 0.45 -0.56 0.39 -0.93 0.58 -0.93 -0.19
1.13 -0.49 -1.05 1.30 -0.39 0.31 -3.91 0.07 -0.61 -0.18
0.07 -0.14 0.57 1.02 0.30 0.62 -5.80 0.70 0.36 -0.85
-0.61 -0.81 -0.45 0.06 -0.52 1.32 -3.76 0.78 0.38 -0.33
-0.14 -0.28 -0.42 -0.26 -0.23 0.16 -3.39 -0.61 0.99 0.26
0.21 -0.81 -0.50 -0.42 0.62 0.44 -1.90 1.33 0.15 0.40
0.21 -0.91 -0.72 -3.50 0.27 1.59 -2.37 0.96 0.17 -2.41
-1.04 -2.00 -1.61 -2.33 -1.13 2.63 -1.47 -0.67 1.08 -2.11
-1.98 0.32 -0.61 0.25 -0.93 3.26 -0.62 -2.03 0.30 -0.21
-0.56 0.38 0.73 0.94 -1.63 -0.43 -0.79 -0.45 -0.26 -0.84
0.39 -0.80 0.09 -0.45 -0.19 0.01 -0.06 0.33 -0.57 -0.21
-0.58 0.48 0.25 0.02 0.10 0.11 -0.24 0.59 0.44 0.51
-0.68 -0.35 -0.93 0.46 -0.96 -0.71 0.10 0.93 -0.90 0.62
0.15 0.87 0.31 0.46 -0.35 -0.76 0.84 1.33 -0.90 0.35
-0.12 0.35 -0.59 -0.31 0.41 -0.03 -0.93 0.57 -0.64 -0.66
-0.51 0.72 0.86 0.86 -0.16 -1.29 -1.31 0.35 -0.16 -1.23
-0.40 -0.83 0.62 0.03 -0.63 -1.37 -1.67 0.14 0.14 -1.40
0.44 -1.24 -0.05 0.01 0.27 -0.18 -1.60 -1.53 -0.40 0.21
-0.38 -1.44 1.04 1.06 0.09 -0.21 0.02 1.39 -0.23 -0.15
-0.03 -0.32 0.52 0.57 -0.56 0.21 -0.32 0.18 1.02 -0.78
0.28 -1.06 0.20 -0.59 -1.02 1.02 0.10 0.99 0.71 -0.99
0.84 -0.94 -0.01 -0.04 -0.53 -0.67 -0.90 0.23 0.36 0.32
-1.08 -0.44 0.25 -2.19 -0.99 1.18 -1.20 -0.09 0.11 -0.19
-0.45 -0.71 0.11 -2.10 -0.89 0.57 -0.02 2.11 0.66 -0.53
0.31 0.36 0.16 -0.56 0.35 -0.17 -1.46 0.38 0.28 0.23
-0.12 0.28 0.15 0.31 -2.69 -2.00 -0.43 1.48 -0.36 1.03
-0.05 1.08 0.27 1.60 -0.99 -1.80 -1.38 0.69 -1.19 1.49
0.62 0.19 -0.55 1.13 -0.73 -1.46 -1.58 0.30 -1.23 -1.63
1.19 -1.21 -0.24 0.71 -0.31 -1.21 -2.96 0.97 -0.36 -0.60
0.41 0.19 -0.05 0.70 0.18 0.15 -2.88 -0.04 0.26 0.21
0.72 -1.32 -0.17 -1.01 -0.72 0.35 -2.17 0.95 -0.16 -1.10
0.12 -0.27 -0.80 1.49 0.03 0.27 -0.74 -0.32 0.48 -0.08
0.72 -0.83 -0.73 0.26 -0.59 1.72 -1.18 0.85 0.58 -0.76
-0.27 -2.14 -0.04 -1.82 0.21 4.08 -2.79 0.27 0.76 -1.02
1.00 -0.80 -1.39 -2.16 0.06 3.82 -3.04 -0.85 -0.12 -3.41
-1.43 -1.61 -0.29 -1.54 -0.31 6.60 -2.04 -0.25 -0.21 -2.67
-0.91 -1.07 -0.53 -0.99 -0.63 5.51 -0.88 0.14 -0.94 -1.13
-1.14 0.18 -0.66 0.55 -1.45 1.42 0.07 -0.14 -0.13 0.05
0.62 0.55 -0.32 0.20 -0.66 0.83 -0.18 -0.70 -0.86 0.26
-0.74 -0.63 -0.68 0.88 -0.83 -0.39 0.58 0.05 -0.89 0.19
-1.00 0.98 0.15 0.28 -0.83 -0.57 0.72 0.10 0.64 0.89
-0.38 -0.23 0.13 0.07 -1.15 -0.00 0.73 -0.00 -0.60 -0.21
-0.79 -0.63 0.22 0.76 -1.49 -1.13 -0.80 1.40 0.13 -0.90
0.00 -0.47 -1.11 0.17 0.40 -0.16 -1.57 -0.54 -0.63 -0.75
-0.03 0.63 0.82 0.57 -1.06 -0.71 -0.96 0.69 -0.52 0.29
-1.07 0.13 1.61 -0.54 -1.46 -0.28 0.30 0.60 -0.94 0.32
-0.10 -0.68 0.09 -0.33 -0.27 0.43 -0.39 0.23 0.29 -0.63
-0.08 -1.40 -0.02 -1.37 0.17 0.74 0.56 -0.09 0.51 -0.30
-0.59 -1.16 1.42 -2.95 0.35 1.04 -0.46 -0.57 0.02 -0.29
-0.80 -0.29 1.03 -2.68 0.62 0.40 -0.10 0.49 0.19 0.18
0.13 0.19 0.07 -2.78 -0.27 0.82 -0.63 -1.00 0.65 0.66
0.56 0.31 -0.72 -2.05 0.85 0.66 -0.18 -0.06 1.01 -0.99
-0.11 -0.78 -0.63 0.79 -1.45 1.42 0.24 1.80 -0.42 -0.47
-0.91 1.56 -0.22 1.63 -3.71 -0.34 -0.86 0.98 -0.87 -0.06
0.07 1.36 -0.36 -0.61 0.08 -1.21 -1.64 1.05 -1.18 -1.61
0.42 0.69 0.29 1.33 -0.63 -1.56 -1.13 1.82 -0.68 -0.42
0.41 -0.68 0.13 0.14 0.20 -2.41 -2.83 1.15 -0.55 -0.18
1.03 -0.79 -0.03 0.66 -0.09 -3.47 -0.27 1.37 -0.00 0.16
0.61 -1.16 -0.48 1.43 0.78 -3.00 -0.15 1.12 0.47 0.95
0.64 -0.89 0.33 0.90 -1.31 -2.05 -0.20 1.18 0.40 -0.63
0.37 -0.24 -0.66 0.80 0.39 -0.69 -0.67 0.38 0.50 -0.01
0.93 -0.62 0.28 -1.02 0.18 0.95 -0.66 1.15 1.33 0.71
0.70 -1.35 -1.62 -0.52 -0.31 0.48 -1.00 -0.11 1.09 -1.31
0.52 -0.88 -0.33 -0.54 -0.34 2.33 -2.00 -1.64 0.40 -2.32
-1.85 -0.32 0.55 -0.53 -0.74 3.11 -1.84 -1.13 0.67 0.51
-1.45 -0.41 -0.82 0.79 -1.41 0.35 -0.71 0.61 -0.78 -0.76
0.04 0.35 0.40 0.07 0.77 0.89 -0.89 -0.07 0.12 -0.70
-0.71 -0.05 0.94 0.80 0.93 0.83 0.74 -0.02 -0.57 0.11
-0.16 -0.52 0.67 -1.00 0.85 0.51 -0.17 -0.91 -0.18 -0.69
-0.21 0.41 -0.27 -0.33 -0.50 -0.06 0.09 1.24 -0.33 -1.21
-0.58 -0.97 -1.19 0.86 -0.41 -0.50 0.52 0.68 -0.18 -0.79
-0.21 -0.99 -0.21 -0.62 -0.83 -1.19 -1.66 1.31 -0.46 -0.90
-1.45 0.35 -0.08 -0.00 -0.41 -0.23 -2.22 0.60 0.24 -0.43
0.02 -0.32 -0.68 -1.31 -0.26 -0.00 0.18 -0.52 0.67 0.22
0.04 -1.28 -0.85 -2.10 -0.89 1.38 -0.50 -0.60 0.86 0.69
-0.23 -0.61 -1.73 -4.48 -0.75 0.15 -0.37 -0.68 0.53 2.53
0.06 -0.60 -3.02 -1.72 -0.11 0.33 1.27 0.39 0.41 0.52
-0.46 0.22 -3.03 -1.61 -0.04 0.75 -0.74 1.19 1.21 0.21
0.87 -0.92 -3.42 0.12 -0.34 0.63 -0.41 0.51 0.57 1.00
-1.14 -0.94 -3.76 0.70 0.12 -0.49 0.36 0.28 0.37 -0.25
0.08 1.28 -3.29 0.35 -3.10 0.39 -0.28 0.32 0.40 -0.53
-1.31 1.28 -1.65 1.65 -4.26 0.34 0.47 0.62 -0.53 -1.95
-2.00 1.52 -1.61 1.32 0.98 -0.84 -1.60 1.76 -0.84 0.82
-1.56 0.58 -0.88 -0.13 0.96 -0.61 -0.26 1.32 -0.61 -0.50
0.12 0.45 -0.61 1.59 -0.21 -0.38 -0.82 0.96 -0.09 0.15
-0.15 0.14 0.64 0.84 -1.20 -1.16 0.08 0.89 0.05 -0.00
-0.76 -0.12 0.28 1.49 0.37 -4.66 0.47 0.50 -0.44 0.57
0.41 -0.31 -0.93 0.38 -1.44 -8.14 -0.62 0.84 0.57 1.43
0.12 -0.08 -0.85 -1.51 -0.95 -7.46 0.62 1.72 0.78 0.44
0.87 -1.19 -1.15 -0.35 -1.51 -6.03 0.14 0.59 0.56 0.64
0.26 -1.10 -0.48 -0.29 -2.23 -5.54 -0.07 0.42 0.27 -1.19
-0.72 -0.12 0.74 -0.11 -3.05 -5.20 -2.21 -1.08 0.79 -2.43
-0.93 -0.74 0.76 -0.14 -0.31 0.19 -0.85 0.17 -1.03 -0.88
-0.08 -0.49 0.14 -0.94 -1.15 1.07 -0.14 -0.42 0.69 0.80
0.92 0.36 -0.64 0.79 -0.92 0.90 0.90 0.40 0.62 -0.83
-0.47 0.55 0.59 0.20 0.10 0.08 -0.01 0.34 -0.58 -0.51
0.50 0.78 0.22 0.67 0.63 -0.13 0.96 0.96 -1.00 -0.29
0.83 -0.48 0.70 0.42 -0.74 -0.08 -0.19 0.33 0.63 -0.81
-0.95 0.20 0.14 0.41 -0.73 0.31 0.38 0.40 -0.89 -0.21
-1.88 0.70 -2.19 -0.93 -1.46 0.84 -0.84 0.66 -0.46 -1.40
0.28 0.62 -3.22 -0.64 0.12 0.86 -0.65 -0.46 -0.13 1.61
0.63 0.53 -2.91 -2.26 -0.08 1.83 -0.28 -0.93 -0.02 0.38
-0.42 -0.57 -4.67 -2.46 0.71 -0.19 0.43 0.75 -0.36 0.53
0.00 -1.32 -4.83 -0.89 0.95 0.01 -0.35 0.48 0.48 -0.88
-0.66 0.02 -5.03 0.88 -0.31 -0.29 0.61 -1.04 0.27 0.62
-0.00 -0.97 -4.16 -0.42 1.35 0.81 -0.08 -1.30 -0.39 0.78
0.54 -2.05 -3.98 -0.20 2.69 0.04 0.52 -1.02 -0.47 0.26
0.61 0.67 -2.17 1.08 4.20 0.94 0.60 -1.38 0.53 0.61
0.68 0.44 -3.26 -1.23 -2.12 0.70 0.30 -3.56 2.10 1.78
-1.87 1.98 -3.52 1.87 -1.54 -0.97 -0.29 -2.01 1.07 0.81
-2.08 1.59 -2.22 0.75 1.17 0.02 -0.98 0.18 -0.87 1.21
-2.50 0.43 -1.06 0.91 0.77 -1.10 -0.75 0.41 0.53 0.33
-0.27 -0.66 -0.79 0.63 0.29 -0.96 0.87 0.62 -0.98 1.74
0.92 -0.88 -0.54 0.53 -0.34 -0.20 0.22 0.07 0.48 0.91
0.38 -0.33 0.22 -0.88 -0.51 -0.16 -1.05 -1.02 0.35 1.83
-0.28 -1.09 -0.10 -1.82 -0.59 -1.90 0.15 -0.57 0.59 1.97
0.73 -0.10 1.02 -1.87 -0.02 -5.85 0.68 -0.73 0.21 1.94
-0.27 -1.09 -1.14 -1.58 -0.30 -6.44 0.30 -0.16 0.96 1.79
0.57 -0.47 -1.32 -1.67 -1.41 -5.32 1.53 -0.33 0.06 0.49
0.33 -0.70 0.35 -0.69 -0.98 -3.99 0.91 -0.44 -0.20 -1.43
-0.65 0.46 0.87 0.74 -0.88 -1.40 -1.18 0.33 -0.10 -0.98
0.47 -0.34 0.53 0.23 0.64 -0.24 -1.11 -0.14 0.83 0.13
0.45 0.45 0.09 0.19 -0.43 0.90 -0.22 0.50 0.14 0.22
0.50 0.96 0.26 0.99 0.60 -0.46 0.92 0.20 -0.94 -0.99
-0.42 0.01 -0.56 0.05 -0.19 -0.22 -0.86 0.57 0.63 0.11
-0.54 0.69 -0.50 -0.38 -0.73 -0.78 -0.07 0.99 0.79 -0.10
0.70 0.14 -0.93 0.48 -0.63 0.67 -0.84 1.28 -0.06 -0.51
0.04 -0.22 -1.76 -0.65 -0.54 0.30 -1.69 0.40 0.05 -1.09
0.69 -0.73 -3.55 -0.73 -0.40 0.63 -0.22 -0.67 -0.66 1.00
1.17 -0.24 -5.79 -0.98 1.59 0.21 0.38 -0.18 -1.45 0.78
0.95 -0.62 -5.65 -0.34 0.50 -0.05 0.39 -0.68 -0.75 0.19
0.32 -0.74 -4.86 -1.43 0.95 -0.26 -0.43 -0.92 -0.42 0.80
-0.22 0.27 -2.21 1.02 0.38 0.41 0.23 -0.72 -0.15 0.65
1.09 -1.19 -0.03 -1.03 1.93 0.15 1.63 -0.23 -0.71 0.50
-0.69 -0.87 0.39 -0.87 1.95 1.18 -0.63 -0.11 0.45 0.43
-0.09 0.82 0.20 0.82 2.39 0.55 0.46 -2.79 0.37 0.19
-0.98 -0.39 0.06 1.49 -3.24 0.08 -0.28 -4.53 -0.08 1.16
-1.36 1.92 -0.77 1.74 -0.77 -0.55 -0.97 -1.47 0.57 1.55
-3.07 0.71 -0.92 -0.14 0.78 -0.57 1.25 -1.50 -0.31 1.20
-1.59 0.93 -1.02 1.59 0.49 -1.05 -0.18 -0.24 0.38 0.46
-0.08 0.69 -1.27 -0.78 -0.00 -0.74 -0.29 -0.32 0.11 1.00
-0.46 -1.29 -0.54 -0.76 0.22 -0.72 0.17 -1.09 -0.08 1.78
-0.95 -1.61 -0.64 -1.55 -0.85 0.63 0.59 -1.09 0.16 0.95
-0.03 -0.89 -0.80 -1.74 1.04 2.25 -0.61 -0.72 -0.66 0.04
-0.28 -0.38 -0.20 -0.83 0.26 -1.73 0.92 -0.61 0.57 1.93
0.73 -0.77 -0.77 -2.29 0.27 -5.50 0.39 -1.29 0.27 1.09
0.54 -1.50 -0.21 -1.29 -1.31 -5.45 1.99 -1.02 -0.36 -2.06
0.69 -1.50 1.27 -1.41 -1.45 -4.19 1.29 -0.42 -1.03 -1.31
-0.08 -0.22 0.63 -0.95 -0.72 -0.18 -1.50 -0.97 0.95 -0.98
-0.23 -1.05 1.08 -0.92 -1.04 0.24 -1.53 -0.23 -0.68 -1.04
0.58 0.70 0.11 -0.46 -0.46 -0.33 -0.28 -0.96 -0.81 -0.08
0.40 -0.27 -0.04 -0.88 0.13 -0.74 -0.51 0.36 -0.89 0.38
-0.80 -0.42 0.83 -0.59 -0.70 0.24 -0.69 0.11 -0.42 0.45
0.32 -0.06 0.61 0.27 -0.36 0.00 -0.72 0.45 -0.37 -0.70
-0.90 -0.86 -0.76 -0.92 -0.92 0.02 -0.34 0.48 0.46 -0.03
0.29 0.21 -0.79 -1.26 0.79 0.35 -0.81 -0.69 0.27 -0.09
1.93 0.22 -3.17 -1.45 1.26 0.80 -1.14 -0.24 -0.49 0.29
0.19 0.48 -2.83 -0.65 0.60 -0.12 0.59 -0.58 -0.60 0.23
0.62 -1.17 -1.76 -1.10 0.34 -0.69 1.64 -0.67 -1.73 -0.50
0.56 -0.42 0.86 0.13 0.72 0.10 0.21 -0.47 -1.56 0.85
0.51 -2.18 1.13 0.02 1.19 0.38 1.02 -0.62 -2.06 0.46
0.46 -2.24 1.00 -1.70 0.63 0.66 0.74 -1.13 -0.58 -0.14
0.14 -1.04 -0.37 -0.08 1.61 0.02 1.25 -1.80 -0.35 0.45
1.19 0.28 0.42 0.91 1.58 -0.23 0.47 -2.74 0.55 0.90
-1.68 0.64 0.59 0.52 -1.79 -0.20 -0.78 -1.49 1.19 0.85
-1.97 2.05 -0.58 0.36 -0.54 -0.74 -0.66 -0.09 0.34 0.13
-2.88 -0.23 -0.64 0.83 0.51 -0.56 -0.09 0.50 0.02 0.96
-1.26 0.36 -0.02 0.41 0.83 -0.14 0.57 -1.09 0.48 0.56
0.16 -0.57 -1.48 -0.49 1.39 -0.81 -0.15 -0.42 -0.08 0.52
-0.47 -0.94 0.44 -0.60 1.13 -0.41 -0.50 0.59 -0.12 -0.66
-0.27 -1.32 -0.60 -0.25 1.07 -1.19 -0.16 1.76 -0.23 -1.28
0.53 0.06 -0.51 -0.94 0.31 0.97 -0.05 0.55 -0.45 -0.19
-0.05 -0.18 -1.39 -0.09 0.16 1.68 1.06 -1.07 -1.32 -1.30
-0.31 -0.62 -1.14 0.12 0.22 -1.74 0.78 1.10 0.17 -1.42
0.33 -0.58 -1.17 -0.17 -0.47 -3.69 0.18 0.13 0.43 -2.35
0.82 -0.07 -0.09 0.61 -1.98 -3.66 -0.29 -1.72 -1.19 -0.76
0.35 0.59 1.44 0.33 0.22 -1.52 -1.87 -0.63 -0.93 -1.09
0.80 0.54 1.96 -0.88 0.25 -0.41 -0.33 -0.37 0.27 0.01
-0.57 -0.46 -0.11 -0.22 0.49 0.99 -0.62 -0.35 -0.86 0.81
0.21 -0.38 0.70 -0.66 0.74 -0.09 0.89 -0.26 0.99 0.34
-0.05 0.29 -0.82 -0.54 0.70 -0.09 0.20 0.11 0.60 0.50
-0.53 -0.32 -0.28 0.77 0.45 0.08 -0.05 0.26 0.22 -0.03
-0.74 -0.73 0.03 -0.48 0.77 0.65 0.26 0.68 0.06 0.60
-0.54 0.23 -1.42 -0.70 1.31 -0.85 -0.34 0.62 -0.97 -0.10
1.04 -1.07 -0.94 -1.66 0.07 -1.92 -0.56 -0.26 -1.17 -0.08
-0.14 -0.14 0.22 -1.97 0.20 -0.42 0.58 -1.60 -0.68 -0.33
0.33 0.36 1.60 -1.93 0.72 -1.44 0.63 -0.23 -1.11 1.04
1.68 -0.64 1.45 -0.03 1.07 -0.19 0.77 -1.72 -1.55 0.06
0.58 -1.48 0.92 -0.31 0.67 1.06 0.81 -1.17 -1.42 0.19
1.38 -1.99 0.01 -0.71 0.47 0.08 0.29 -0.82 -0.25 0.43
0.27 -0.37 0.36 -0.64 0.36 0.09 0.59 -1.56 0.31 1.15
0.25 0.91 0.00 0.33 0.76 1.40 0.40 -1.50 0.02 0.90
-3.01 1.06 0.65 0.39 0.12 -1.06 0.21 -1.46 0.64 0.11
-2.49 2.40 -0.60 1.19 -0.38 -0.89 0.82 -0.41 -0.04 -0.53
-1.90 -0.63 -0.72 0.90 0.48 -0.11 0.34 -0.72 1.11 0.38
-1.10 1.55 0.58 -1.08 1.19 -0.03 -0.60 -0.05 -0.08 0.61
0.36 -0.85 -0.33 -0.93 0.83 -1.06 0.52 1.49 -0.90 0.37
-1.10 -2.43 -0.72 0.15 -0.42 0.25 -0.16 0.67 -1.79 0.50
-0.27 -0.58 0.17 0.52 1.37 -0.39 0.43 1.44 -0.50 -0.43
0.88 -0.52 -1.11 1.10 -0.08 -0.28 1.49 1.90 -1.24 0.23
0.93 0.49 -0.39 1.97 -1.10 -0.51 1.19 0.63 -0.35 -1.66
0.27 -0.85 -0.01 0.60 1.43 0.23 -0.40 0.20 -1.08 -1.38
0.95 0.52 -0.52 -0.17 0.32 -1.33 0.57 -0.99 -0.09 -2.27
0.22 0.27 0.32 -0.21 -1.31 -1.80 -1.27 0.25 -0.42 -2.42
-0.63 0.38 0.88 -0.26 -1.12 0.21 -0.28 -0.88 -0.71 -0.34
-0.80 -0.02 1.36 -0.51 -0.46 -0.48 -0.83 0.76 0.96 0.65
-0.88 0.48 0.08 -0.80 -0.57 -0.46 -0.30 0.85 0.88 -0.71
-0.03 0.46 0.52 0.85 0.72 -0.40 0.21 -0.29 0.81 0.63
-0.12 -0.95 0.26 0.16 -0.31 0.08 -0.46 -0.64 0.96 -0.41
-0.13 0.94 -0.19 0.77 0.53 0.13 -0.95 0.89 0.71 -1.16
-0.67 0.91 -0.31 0.12 -1.38 -0.52 0.42 -0.41 0.59 -0.35
-0.58 -0.41 -0.40 0.55 -2.07 -0.16 -0.72 0.58 -0.28 0.46
0.83 -0.99 1.03 -0.77 -1.40 -0.81 -0.73 -1.30 0.10 -0.26
0.36 0.10 2.19 -0.37 0.94 -2.92 0.24 -0.02 -1.42 -2.27
1.17 -0.38 0.14 -1.39 0.99 -2.13 0.86 0.40 -0.22 0.32
0.81 -0.34 0.31 -1.21 2.22 -1.56 -1.28 -1.25 -0.63 0.99
1.92 -0.71 -0.38 -1.13 0.86 -0.87 0.88 -0.19 0.03 -0.23
0.42 0.39 1.00 -0.78 0.45 0.16 -0.22 -1.22 -0.12 0.67
1.39 -0.37 0.41 1.15 -0.01 -0.47 2.25 -2.70 0.24 1.95
-1.50 -0.15 0.50 1.17 0.11 -0.39 0.06 -0.91 0.79 0.68
-3.12 0.80 0.60 2.30 0.19 -0.11 0.02 0.37 0.25 -0.90
-2.62 1.26 -0.34 0.00 1.47 -0.96 0.49 -1.36 -0.24 -0.74
-0.51 0.04 -0.06 -2.33 0.48 -0.70 0.54 0.94 0.04 0.36
0.23 0.74 0.15 -0.46 1.16 -1.14 -0.07 -0.29 -0.05 0.92
-0.58 -2.18 0.08 -0.05 0.92 -0.00 -1.11 2.15 -0.46 -0.68
1.19 -1.63 -0.75 0.42 1.15 -0.79 -0.27 0.11 -0.83 0.94
-0.39 -0.11 0.12 -0.01 0.30 0.51 0.86 1.21 -0.44 0.24
-0.53 -0.40 -1.15 1.63 0.71 0.22 -0.00 0.25 -0.52 -0.97
0.17 0.06 0.41 1.01 1.89 -1.09 -0.42 1.60 -0.60 -1.93
0.23 0.38 1.52 1.31 -0.24 1.04 0.22 0.67 -0.05 -1.98
0.48 -1.28 0.16 0.60 -0.33 0.31 0.48 0.12 -0.43 -2.81
-0.41 -0.03 -0.12 -0.64 -2.47 -1.24 -0.56 -0.44 0.68 -0.96
-0.58 -1.04 1.03 -0.75 -2.23 -0.93 -0.87 -0.27 -0.84 -1.70
-0.42 -0.71 0.40 0.00 -1.53 0.50 -1.42 -0.90 -0.47 0.00
-0.12 -0.57 0.80 -0.38 -0.21 0.13 -0.11 -0.67 0.50 0.65
-0.73 -0.07 -0.68 0.57 -0.55 -0.42 -0.48 -0.99 0.18 -0.04
-0.87 0.81 0.78 0.33 -0.05 -0.34 0.62 -0.07 0.11 0.26
0.60 -0.52 0.16 0.79 -0.42 0.74 0.11 -0.38 -0.38 -0.78
-0.92 0.19 0.36 1.09 -1.26 -0.64 0.49 0.74 0.67 -0.71
0.49 0.51 0.88 0.69 -1.00 0.62 -0.06 -0.19 0.18 -0.52
0.93 -0.35 1.32 -1.21 0.43 -0.51 -0.67 -0.11 -1.26 -1.50
0.61 -0.77 1.65 -0.35 1.08 1.02 -0.06 -0.32 -0.16 -0.53
0.56 -1.46 0.94 -1.26 0.55 -0.20 0.00 -0.46 -0.17 0.25
-0.05 -0.18 1.28 -1.19 0.72 -1.62 0.01 -1.03 0.24 -0.09
-0.16 -0.57 1.13 -3.64 1.07 -1.66 0.37 0.68 1.37 -0.41
1.05 0.07 0.69 -4.25 0.23 -0.90 1.61 -2.99 0.24 0.98
0.78 -0.45 0.21 -5.77 -1.36 -0.62 1.52 -0.95 0.71 0.18
-2.81 0.60 0.85 -4.35 -0.29 -1.65 -0.18 0.54 0.71 -0.34
-2.47 0.89 0.54 -2.13 1.00 -0.99 0.87 -1.03 0.63 0.54
-2.50 1.53 0.64 -2.46 1.56 -1.50 -0.37 -0.20 0.20 -0.29
-0.83 -0.82 0.45 -1.06 0.95 0.40 -1.47 0.93 0.00 0.23
-0.84 -0.66 0.38 1.08 1.13 -0.93 -0.12 -1.00 0.15 -0.01
-0.57 -2.21 0.07 0.17 0.81 -0.06 -0.68 0.03 -0.90 0.01
-0.84 -1.11 -0.44 -0.64 1.62 1.21 0.92 1.40 -0.49 -0.00
0.16 -0.88 -1.15 0.99 -0.13 -0.49 0.37 0.60 -1.02 -0.36
-0.30 0.19 0.17 -0.30 -0.49 0.25 1.07 1.28 0.12 -0.79
0.10 -0.48 -1.35 0.26 1.08 0.26 0.15 0.27 -0.24 -1.15
-0.29 -0.41 -0.30 2.64 -0.56 -0.69 0.11 -1.24 -1.28 -1.80
-0.88 -0.27 0.13 1.03 -0.82 -0.64 0.25 0.57 -0.36 -0.91
0.41 -0.90 0.49 -0.61 -1.96 -0.34 0.04 -0.29 -0.95 -1.62
0.17 -0.88 1.88 -0.44 -0.44 0.18 -0.33 -0.74 -0.02 -0.70
0.59 -0.18 1.65 -0.60 0.42 -0.57 -0.90 0.03 -0.72 0.01
0.12 0.65 -0.17 0.15 0.79 -0.60 0.67 -0.49 0.52 0.81
-0.14 -0.04 -0.60 0.44 0.44 -0.04 -0.23 -0.90 0.52 0.28
0.72 -0.92 -0.42 -0.02 0.82 -0.75 -0.96 0.40 -0.41 0.40
0.14 0.87 -1.11 0.44 -0.79 -0.45 -0.48 -0.01 0.94 -1.09
-1.68 0.64 0.18 3.09 -1.48 -0.77 -0.50 0.76 0.23 0.01
-0.51 0.26 0.87 1.67 -0.56 0.00 -0.64 -1.24 -1.33 -1.84
-0.03 -1.16 0.95 -0.69 0.99 0.94 -1.34 -0.68 -1.20 -1.26
0.30 -2.32 0.84 -0.46 0.35 1.08 -1.25 -2.60 -0.40 -1.97
0.35 -1.10 1.21 -0.69 0.65 0.97 0.30 -1.49 -0.75 -0.27
0.61 0.47 1.43 -0.39 0.77 -1.33 0.49 -0.85 0.47 -0.41
1.59 -0.90 1.69 -2.56 1.06 -1.64 0.65 -0.74 0.75 0.97
1.41 0.77 0.76 -4.15 -1.58 -2.97 0.57 -2.15 0.40 1.38
0.71 -0.81 0.76 -4.65 -1.70 -2.55 0.26 -1.62 1.10 2.10
-2.18 -0.53 1.99 -5.81 0.83 -0.86 1.77 -0.27 0.50 -0.91
-2.43 0.81 0.55 -5.76 1.85 -0.39 0.27 0.65 -0.40 -0.22
-0.55 0.83 1.55 -3.08 1.33 -1.10 0.79 -0.21 -0.68 0.86
0.16 -0.65 0.11 -0.53 0.08 -0.81 0.90 -1.06 0.63 0.39
-0.18 -2.48 0.49 0.96 0.23 0.14 0.73 -0.65 -0.30 -0.11
0.41 0.15 0.53 0.18 -1.99 0.54 0.74 -0.32 0.34 -0.05
-0.48 -0.46 -0.59 1.25 -1.94 -0.98 0.31 -0.32 0.64 -0.66
-0.24 0.83 -0.53 2.13 -0.50 0.76 0.38 -0.44 -0.49 -0.82
-1.47 -0.14 0.73 -0.44 -0.27 0.35 -0.80 -0.26 -0.21 -0.35
-0.40 -1.14 0.35 1.48 -1.34 -0.29 0.06 -0.71 -1.00 -0.56
0.60 -0.97 0.39 0.43 -2.34 -0.18 0.99 -1.38 -0.99 -2.40
-0.77 -0.97 2.39 -0.78 -1.08 -0.08 0.26 -2.14 -0.19 -1.66
-0.02 0.49 1.94 -1.17 -0.24 -0.14 -1.27 0.26 -0.26 -2.19
0.24 0.35 1.06 -0.74 -0.15 -1.11 -0.28 0.60 0.47 0.26
-0.62 -0.88 -0.44 -0.36 0.50 -0.56 -1.06 -0.22 -1.01 -0.54
0.25 0.28 0.43 -0.10 -0.64 -1.00 -0.77 0.15 -0.04 -0.53
-0.33 -0.03 -0.21 0.20 0.70 -1.00 0.09 0.76 0.99 -0.11
0.43 -0.63 -0.41 -0.21 -0.39 0.85 0.15 0.41 -0.62 0.13
-0.86 0.19 0.03 -0.58 0.24 0.74 0.54 0.80 0.29 -0.33
-0.26 0.93 -1.17 2.63 0.44 -1.76 -0.98 -0.59 0.85 -1.09
-0.25 -0.87 -0.39 0.37 0.34 0.19 -0.61 0.05 -0.85 -1.62
0.27 -0.62 -0.05 1.68 -0.97 0.24 -1.00 -2.33 -0.48 -1.51
0.55 -0.74 0.71 0.09 -0.05 0.24 -0.65 -1.64 -0.21 -1.94
-0.38 -0.13 0.79 -0.67 0.19 0.44 1.37 -1.30 -0.04 -1.53
0.71 -0.88 -0.04 -0.43 -2.45 0.63 0.57 -0.58 -0.32 -1.94
0.10 0.20 0.34 0.16 -1.42 0.55 0.85 -2.56 1.57 -1.72
0.88 -0.85 1.08 1.12 -1.39 -0.04 0.81 -0.36 0.25 -0.30
0.10 -0.63 0.13 0.53 -1.57 0.34 1.89 -0.18 0.85 -0.20
-0.67 -0.54 1.04 0.13 -2.26 0.32 1.73 0.50 -0.79 -0.38
-1.24 0.92 1.19 -1.84 -0.58 0.34 0.77 -0.39 -1.78 -0.83
-1.62 -0.66 -0.08 -2.89 0.68 0.57 0.27 0.48 0.07 -1.62
-0.11 -0.10 0.42 -1.96 -0.32 -0.29 1.12 0.50 -0.37 -1.02
-0.17 0.21 0.39 -0.60 0.05 -0.08 -0.17 -0.96 0.17 -0.09
-1.06 -0.53 0.76 0.99 -0.71 -0.45 0.59 0.36 -0.36 0.46
0.72 0.23 -0.59 0.05 -0.14 -0.28 0.43 -1.02 -0.20 -0.19
-1.21 0.02 -0.54 0.22 -1.11 -0.75 -0.55 0.05 -0.45 -0.56
1.02 -1.28 0.26 0.76 0.10 -1.05 -0.67 -1.38 -0.36 -0.74
-0.47 -1.36 0.28 1.22 -1.37 -0.27 -0.16 -2.29 -0.34 -1.07
1.27 -0.01 -0.66 0.07 -2.61 0.67 0.28 -1.74 -1.07 -0.91
-0.90 -0.47 1.31 0.18 -1.89 0.93 -0.14 -1.21 0.50 -1.88
0.06 -0.31 1.68 -0.54 0.04 1.21 -1.23 -0.41 0.46 -0.58
-0.25 0.11 1.99 -0.34 -1.25 -0.78 -0.24 0.64 -0.72 -1.44
0.61 0.04 0.84 0.51 0.82 -0.75 -1.48 -0.42 0.10 0.28
-0.35 -0.64 0.91 -0.37 0.15 -0.04 0.17 0.75 0.65 0.15
-0.52 0.32 0.13 -0.01 -0.85 0.94 -0.97 -0.17 -0.20 0.08
0.37 0.79 -0.66 -0.49 0.08 -0.98 -0.43 -0.12 0.58 -0.16
0.42 0.89 -0.95 -0.54 -0.47 -0.34 0.95 0.24 -0.42 0.64
-0.65 -0.92 0.67 1.80 -0.31 -1.14 -0.10 -0.12 -1.06 -0.88
-0.38 -0.62 0.48 0.99 -0.74 -0.35 -0.79 -0.91 0.48 0.20
0.42 0.06 -0.29 0.58 -0.35 0.44 -0.18 -0.71 0.09 -1.39
-0.01 -0.03 1.51 -0.25 -1.06 -0.83 -0.32 -1.97 0.13 -1.51
0.54 0.08 1.76 0.55 -2.48 -0.26 -1.18 -2.05 -0.27 -2.43
1.18 0.58 0.81 0.66 -2.90 0.26 -0.05 -2.15 -0.12 -3.19
0.48 -0.28 0.80 0.49 -2.35 0.07 0.45 -0.65 -0.06 -3.13
1.84 0.56 -0.07 -0.11 -2.04 0.86 -0.21 -0.85 0.12 -4.22
1.19 0.01 1.05 0.50 -0.68 1.28 0.31 -0.11 -0.60 -1.92
0.32 0.96 0.41 0.72 -1.22 0.89 0.78 1.12 -0.16 -2.02
-0.21 -0.59 0.10 -0.52 -2.05 0.18 0.06 -0.09 -0.54 -0.82
-1.77 -0.04 0.62 -0.43 -0.97 -0.36 1.68 -0.94 -0.90 -0.75
-0.57 -0.18 -0.92 -1.66 -0.30 -0.13 0.85 0.32 0.56 0.18
-0.96 1.48 -0.04 -1.12 -0.94 -0.03 0.52 -1.37 0.14 -0.65
-0.49 0.16 -1.20 -0.64 0.49 -0.23 0.32 -1.66 -0.41 -0.98
-0.56 -0.27 0.44 0.02 -0.26 0.44 0.78 -2.48 -0.05 -2.08
-0.26 -0.78 0.73 -0.36 -1.44 0.71 0.29 -1.72 -0.85 -0.26
-0.53 -1.07 0.25 0.50 -1.55 0.09 -0.22 -2.63 0.55 -0.04
0.16 -1.09 0.15 -0.36 -0.51 0.39 -0.11 -2.59 -0.22 -0.56
-0.72 -0.01 0.72 -1.48 -0.49 0.64 -0.95 -1.54 -0.70 -1.14
-0.64 -0.21 1.08 -1.73 -0.23 0.40 -0.19 -0.43 -1.02 -1.89
-1.43 -0.69 2.55 -0.38 -0.86 0.53 -0.70 -1.07 -0.48 -0.86
0.58 0.49 1.67 -0.76 0.86 -0.60 -1.01 -0.50 0.61 -0.34
0.16 0.78 -0.87 -0.60 1.00 -0.69 -0.66 -0.21 0.92 -0.03
-0.35 0.76 0.41 -0.45 -0.85 -0.07 0.02 -0.83 -0.60 0.94
-0.94 0.39 0.47 0.18 -0.32 -0.99 0.14 1.00 0.67 -0.68
0.98 -0.27 0.54 0.82 -0.72 -0.44 0.69 0.86 0.10 0.54
-0.49 0.06 -0.26 -0.52 0.77 0.61 -0.09 0.34 0.23 0.60
-0.13 -0.34 -0.45 0.30 -0.46 -0.25 -0.67 -0.71 -0.12 -1.05
-0.91 0.85 0.23 1.02 -0.22 -0.70 0.11 -0.03 -0.86 -0.80
0.19 1.19 1.27 0.47 -1.03 0.74 -0.26 -1.34 0.12 -1.60
0.70 -0.04 -0.21 -0.03 -1.23 0.63 -1.60 -1.65 -0.37 -0.85
-0.55 -0.14 -0.39 0.16 -2.12 0.42 -0.64 -1.49 0.55 -1.50
-0.96 -0.94 -0.42 -0.47 -0.52 0.52 -0.12 -0.89 -0.47 -1.72
-0.07 -1.01 0.76 -0.13 -0.03 0.29 0.52 -0.03 -0.31 -1.35
0.85 0.51 0.18 0.54 0.39 0.53 -0.00 -0.12 -0.45 -1.86
0.90 0.09 0.40 -1.09 0.55 -0.13 1.37 -0.87 0.29 -1.83
0.24 -0.63 0.29 0.55 0.27 0.16 1.13 -0.33 0.04 -1.78
0.25 0.29 -0.14 0.72 -0.73 0.34 1.74 0.90 -0.42 0.13
-0.50 -0.17 -0.46 0.34 0.01 -0.07 2.56 -1.36 -0.02 -0.42
-0.91 0.53 -0.85 -0.93 -0.35 0.00 0.51 -1.37 -0.78 -0.97
-0.27 -0.57 0.53 -0.43 0.17 -0.29 0.39 -0.59 -0.63 -0.54
-0.78 -0.92 -0.58 -0.84 0.32 0.76 1.14 -1.23 -0.13 -1.32
-0.79 0.70 0.64 1.03 -0.29 -0.59 0.57 -1.89 -0.25 -1.28
-1.07 -0.44 -1.04 -0.08 -0.04 0.11 0.31 -1.92 0.30 -1.94
-1.09 -1.53 -0.20 -0.00 -0.49 1.35 0.44 -2.76 -0.78 0.72
-0.37 -2.00 0.81 -0.51 -0.87 0.83 -0.70 -0.99 0.10 -0.32
0.35 -1.19 0.79 -0.05 -0.10 0.62 -0.58 -0.84 -0.73 0.48
-2.00 0.01 2.17 -0.73 -1.08 -0.62 -0.70 -0.10 0.32 -0.39
-1.55 -0.82 1.46 -1.27 -0.79 -0.58 0.33 -0.84 -0.41 0.08
0.65 -0.49 0.59 0.02 0.67 0.83 -0.87 -0.64 -0.39 0.53
-0.34 -0.81 -0.66 0.49 0.21 0.35 0.96 -0.55 0.93 0.01
0.72 -0.17 -0.49 -0.10 -0.40 0.99 -0.12 0.90 -0.17 -0.42
-0.13 -0.41 -0.24 0.12 0.51 -0.52 0.21 0.64 -0.25 -0.29
-0.56 0.16 0.04 0.74 0.71 -0.38 0.28 0.20 0.56 -0.40
0.88 0.64 -0.28 0.49 -0.95 -0.62 0.87 -0.98 -0.41 0.90
0.49 -0.36 0.98 1.22 -0.01 -0.38 -0.84 -0.45 -0.54 -0.54
-1.35 -0.50 0.82 0.97 -0.53 -0.50 0.39 -0.67 -0.39 -0.87
-0.50 2.21 -0.56 1.33 -0.38 0.11 0.13 -0.92 -0.90 -0.55
1.12 0.86 -0.32 0.95 -1.00 -0.87 -0.69 -0.72 -0.14 -1.00
0.52 -0.52 1.00 0.25 -0.92 -0.25 -0.97 -0.35 -0.86 -2.32
0.70 -0.02 0.13 -0.80 -0.56 0.26 -0.70 1.20 -0.63 -2.35
0.46 0.36 0.84 -0.48 -0.01 0.77 -0.58 -0.52 -0.82 0.28
0.73 -0.66 0.12 0.73 -0.49 -0.00 0.65 -0.14 0.65 -0.17
0.35 -0.79 0.03 0.31 0.18 0.36 -0.90 -0.81 0.22 -0.13
0.01 -1.73 0.38 -0.22 -0.55 0.09 1.37 -0.17 1.12 0.19
1.21 -0.83 -0.63 -0.16 0.30 0.50 -0.03 -0.96 0.59 -1.23
-0.15 0.70 0.11 0.50 -0.80 0.76 -0.36 -1.27 -0.17 -1.09
0.35 -0.31 -0.58 -0.23 0.62 0.08 1.38 0.44 0.70 -1.84
-0.89 0.52 -0.84 -0.09 -0.02 -0.35 1.26 -0.84 -1.35 -1.40
0.23 1.95 -0.05 -1.14 -0.31 -0.03 -0.34 -1.11 -0.08 -0.76
-1.19 1.37 0.73 -0.90 0.49 0.37 -0.63 -1.14 -0.41 -0.02
0.06 1.19 0.43 0.32 1.55 0.42 -0.75 -0.92 -0.98 -2.03
0.73 0.04 0.44 0.13 0.92 -0.47 -0.89 -2.07 0.08 -1.82
-1.02 -1.26 0.04 -0.67 -0.13 0.39 -0.84 -1.13 -0.55 -0.13
-0.58 -0.04 1.24 1.00 1.01 0.52 -0.89 -1.48 -0.98 0.31
-0.35 -0.69 1.20 -0.65 0.28 0.06 -0.39 -0.18 -0.61 0.72
-0.07 0.53 0.39 -0.92 -0.24 0.48 -1.73 0.35 0.41 0.34
-0.05 -0.75 1.14 -0.98 0.10 -0.01 0.65 0.01 0.02 -0.62
-0.42 -0.19 0.84 -0.26 0.40 -0.79 0.57 -0.48 -0.91 0.57
0.18 0.21 -0.27 -0.58 -0.24 -0.84 0.22 0.70 -0.68 -0.14
0.31 0.20 0.11 -0.64 0.08 0.18 -0.76 -0.71 -0.79 0.49
-0.60 0.85 0.74 0.98 -0.13 -0.68 -0.14 -0.62 -0.71 0.46
0.51 0.18 -0.26 0.67 -0.93 0.45 -0.56 -0.95 0.24 0.07
-0.20 -0.62 0.98 0.90 -1.06 -0.16 -0.34 0.82 -0.70 0.07
-1.42 -0.09 -0.45 1.33 0.65 -1.30 -0.73 1.06 -1.07 0.10
-0.66 0.73 0.70 2.10 -0.25 0.32 -0.29 -0.28 -0.06 -1.83
0.91 1.05 0.55 0.71 -0.01 1.24 -0.49 1.16 -1.39 -0.99
-0.22 0.11 -0.28 1.62 0.35 -0.53 -1.27 1.85 0.29 -1.44
-0.17 0.69 -0.21 -0.50 -0.91 0.39 -0.24 -0.52 -0.24 -0.15
-0.23 0.32 0.43 0.95 0.62 0.48 -0.68 -0.72 0.30 -0.34
1.02 -0.47 -1.04 0.97 -0.77 -0.09 -1.83 0.04 0.20 -0.26
1.01 0.39 0.04 -0.01 -0.84 0.98 -0.35 -1.04 -0.04 -1.47
0.77 0.80 0.14 -0.18 -0.64 0.37 -0.70 -1.65 1.25 -1.53
-0.09 -0.70 -0.51 0.91 -0.13 -0.05 -1.19 -0.23 1.83 -2.03
0.09 -1.29 -0.74 -0.75 0.18 -0.36 -0.44 0.41 0.53 -0.56
0.38 1.15 -0.37 0.48 -0.72 1.02 0.36 0.38 0.30 -1.02
-1.24 0.79 -0.14 -0.36 0.71 0.28 -1.72 -0.32 1.46 -0.97
-0.22 0.52 -0.77 1.22 1.19 -0.29 -0.53 -0.37 -0.15 -1.01
-0.15 0.61 1.20 0.36 1.01 -0.97 -0.46 -0.77 -0.10 -1.38
-1.06 -1.22 1.93 1.03 -0.20 -0.89 -0.16 -1.13 0.92 -0.26
-1.47 -0.71 0.69 0.11 0.15 -0.08 0.10 -1.77 -0.89 0.34
-1.75 -0.57 2.19 -0.03 1.18 0.44 -0.09 -0.98 -1.06 0.04
-1.26 -1.06 1.68 -0.76 -0.21 -0.31 -0.88 -1.16 0.64 0.83
-1.07 0.01 0.77 0.42 -0.09 0.08 -0.77 -0.56 0.18 1.36
0.18 0.80 0.48 -0.15 -0.41 -0.99 -1.51 -1.00 -0.50 -0.98
-0.11 -0.24 -0.89 0.37 0.86 -0.48 -0.12 0.01 -0.35 0.23
-0.47 0.72 0.40 0.63 -0.85 0.44 0.71 0.13 0.51 -0.46
0.75 0.94 -0.72 -0.25 0.95 0.25 0.40 0.90 -0.79 -0.55
0.89 0.08 0.06 0.79 -0.84 0.77 0.21 0.44 0.95 -0.93
0.01 -0.71 -0.63 0.05 -0.91 -0.51 -0.32 0.88 0.11 0.23
-0.91 0.39 0.36 0.78 0.59 0.65 0.68 -0.97 -0.89 0.94
-0.11 0.34 0.75 0.23 0.47 0.11 0.16 0.21 0.88 0.66
-0.09 0.03 -1.13 1.06 -0.26 -0.53 0.48 0.15 -0.40 -0.57
-0.36 -0.19 -1.12 0.61 0.93 -0.78 -0.85 0.22 -0.31 0.21
0.48 1.21 -2.23 1.45 -0.28 -0.38 -0.82 0.72 -0.86 0.28
-0.35 0.13 -0.99 1.26 -1.06 -0.62 -0.76 0.03 -0.92 -0.05
0.09 -1.56 -1.25 1.16 0.44 -0.74 -0.41 -0.35 -0.03 -0.19
0.30 -0.74 -0.51 0.95 -0.41 0.01 -0.05 -1.13 -0.37 0.04
-0.34 -1.14 -1.38 1.19 -0.09 -0.41 -0.12 0.20 0.50 -1.06
-0.33 -1.84 -0.46 0.60 0.50 -0.67 -1.54 0.13 0.25 -0.38
-0.48 -1.50 -1.48 0.40 -0.72 0.15 -0.81 -0.77 -0.37 -0.62
0.15 -1.38 -0.62 0.19 0.06 0.20 -1.48 0.67 0.04 -0.65
0.23 -1.07 -0.25 0.22 -0.30 0.82 -1.65 -0.16 -0.05 -1.10
-0.56 -1.44 0.31 -0.73 -0.45 0.46 -1.83 0.55 0.68 -0.96
-0.18 -2.30 -1.18 -0.62 0.01 -0.55 -1.74 -0.42 0.18 -1.17
-0.70 -0.48 0.71 -0.52 -0.60 0.25 -0.16 0.36 0.93 0.43
-1.06 -0.39 -1.32 -0.60 -0.92 0.62 -0.11 -1.08 -0.31 -1.08
-0.70 0.21 -0.83 -1.00 0.36 -0.47 -0.69 -0.20 0.46 1.36
-0.81 -1.12 -0.17 -1.29 -1.25 0.54 -0.60 -0.26 0.13 2.38
-0.88 -0.10 0.71 -1.19 -0.53 -0.96 -0.64 -1.06 -0.12 2.24
-1.03 -0.29 1.28 0.34 -0.41 1.06 0.38 0.23 -0.47 2.74
0.67 -0.71 -0.80 -0.19 0.07 -1.16 0.89 -0.13 0.71 2.36
0.45 -0.70 0.58 0.27 -0.03 -0.62 -0.27 -0.43 -0.34 0.48
-0.28 0.27 -0.15 -0.46 0.46 -0.62 0.25 -0.73 -0.35 0.40
-0.04 0.82 -0.20 0.37 -0.33 -0.63 -0.31 -0.37 0.74 -0.29
0.37 0.25 0.41 0.49 0.30 -0.95 -0.24 0.25 0.78 0.04
0.38 0.65 0.86 0.24 0.64 -0.70 -0.24 0.39 -0.34 -0.73
-0.25 -0.16 0.87 0.78 0.71 0.83 -0.45 0.93 0.77 -0.18
0.56 -0.70 0.10 0.90 0.44 -0.84 -0.15 0.84 -0.73 -0.86
0.94 -0.34 -0.39 -0.86 0.92 1.06 0.40 1.06 0.99 -0.18
0.65 -0.74 -0.23 0.68 -0.03 0.69 0.85 0.47 -0.51 -1.25
-0.84 -1.27 -0.82 0.12 -1.15 -0.01 0.19 -0.37 -0.61 0.99
-1.61 0.49 -1.06 -0.51 -0.92 0.09 -0.51 -0.10 0.34 0.80
-0.60 -1.28 -1.98 1.02 -0.96 0.16 0.51 0.20 -0.14 -0.62
-1.25 -1.48 -1.65 -0.17 -1.67 -0.02 0.54 0.76 -0.75 -1.26
-2.24 -0.65 -1.73 0.49 -1.13 0.32 0.41 -0.20 -0.39 -1.11
-3.53 -2.51 -1.56 -0.63 -1.45 -0.51 -0.67 0.33 -1.37 0.08
-2.15 -2.48 -1.75 0.49 -0.54 0.58 -0.71 1.47 -1.10 -0.74
-3.70 -1.34 -1.72 -0.10 -2.07 -0.26 -0.09 0.74 -1.12 -0.39
-2.96 -0.94 -1.88 0.16 -1.05 0.05 0.15 0.04 0.13 0.58
-2.61 -1.15 -1.90 0.49 -1.07 0.21 0.14 0.68 -0.76 -0.10
-2.50 -2.10 -1.69 -0.29 -1.27 0.76 0.38 0.44 0.61 0.67
-1.40 -1.48 -2.24 0.67 -2.46 0.49 0.70 0.23 -0.91 0.53
-1.51 -0.98 -0.37 -1.08 -1.56 0.11 0.79 -0.19 -0.00 3.10
-0.85 -0.14 -2.53 -0.51 -1.19 0.27 0.40 1.46 -0.76 2.13
-0.44 -0.35 -0.93 0.76 -2.31 0.77 0.75 1.22 -0.65 2.75
-0.06 -0.13 -1.04 -0.79 -2.05 0.90 -0.43 0.86 -0.81 3.60
0.01 -0.65 -1.03 0.28 -0.87 -0.02 0.45 0.65 -0.30 3.99
-1.16 0.03 0.32 0.37 -1.24 -0.07 -0.91 -0.11 -0.16 0.86
-0.86 0.25 -0.75 0.36 0.73 -0.75 0.34 0.27 0.08 1.27
0.45 0.09 0.23 -0.83 -0.32 0.44 0.05 -0.89 0.20 -0.38
0.51 -0.79 -0.70 -0.42 -0.72 0.82 0.84 0.20 -0.27 0.38
-0.72 -0.88 -0.58 0.08 0.06 0.84 0.67 0.13 -0.21 0.92
0.69 -0.04 0.66 -0.38 -0.96 -0.98 -0.45 0.29 0.40 0.78
0.10 0.44 -0.04 0.93 -0.44 0.75 0.22 -0.09 -0.68 -0.80
0.64 -0.67 -0.83 0.29 0.75 -0.58 -0.30 -0.75 0.03 -0.66
0.83 -0.41 0.57 -0.52 0.42 -0.07 0.58 -0.51 -0.46 -0.03
0.97 -0.31 -0.86 -0.64 0.97 -0.17 -0.35 0.95 -0.84 -0.48
-0.03 -0.90 -0.56 0.33 0.61 -0.82 -0.65 0.14 0.80 1.50
0.31 0.56 -0.56 0.09 -0.75 0.64 0.49 -0.57 0.30 1.42
-0.76 -0.72 0.50 -0.70 -1.09 -1.18 -0.34 -0.67 -0.77 0.11
-0.89 -0.58 0.57 1.06 -0.05 -1.33 -0.30 0.24 -0.36 0.49
-1.40 -1.01 0.21 0.75 -1.51 -0.84 -0.77 0.20 -0.65 1.18
-1.31 -0.01 -0.75 0.13 -1.25 -1.53 -0.86 -0.45 -1.13 0.95
-0.33 -0.02 0.18 -0.43 -1.67 -1.27 -0.38 -0.66 -0.75 1.46
-1.91 -1.30 -0.88 0.19 -2.74 -1.25 0.87 0.32 -0.88 1.12
0.15 -1.52 -0.52 -0.91 -1.94 -0.57 0.66 -1.17 -0.13 1.93
-1.07 -0.66 -0.01 -0.28 -1.71 -0.45 0.44 0.03 -0.79 1.16
-1.71 -0.33 -0.09 -1.05 -2.47 -1.01 0.05 -0.61 -0.46 2.55
-0.38 -0.40 -0.65 -1.21 -2.01 0.04 -0.96 1.00 0.08 0.70
-1.89 0.23 0.21 -0.96 -2.31 0.62 0.93 -0.12 -0.52 1.41
-0.28 0.34 0.51 -0.10 -1.89 -0.26 -0.42 0.37 -0.77 0.10
0.06 -0.16 -0.99 0.53 -1.56 -0.19 -0.38 -0.02 -0.06 1.64
-0.18 0.79 -0.99 0.66 -0.97 -0.11 0.78 0.01 0.24 2.22
-1.12 0.18 -0.91 0.66 -1.71 0.41 0.02 -0.06 0.61 1.58
-1.33 -0.21 0.38 0.14 -1.18 0.15 -0.05 -0.16 -0.67 -0.28
-0.37 -0.14 -0.13 0.98 -1.16 -0.66 0.38 -0.44 -0.17 0.90
0.43 0.75 0.61 0.90 0.02 0.54 0.44 -1.15 -0.41 0.26
0.79 -0.15 -0.89 0.44 -0.09 0.52 -0.20 0.44 0.74 -0.80
-0.54 0.17 -0.84 0.53 -0.41 -0.35 0.55 0.53 0.99 -0.57
0.94 0.02 -0.94 0.76 -0.07 0.89 0.27 -0.36 0.68 -0.54
0.90 -0.88 -0.16 -0.16 0.31 -0.65 -0.34 0.40 0.38 -0.78
-0.43 -0.05 -0.47 -0.83 -0.55 -0.64 0.57 0.13 0.15 -0.75
-0.57 -0.64 0.66 0.03 0.20 -0.33 -0.67 -0.48 -0.40 -0.61
0.17 -1.00 -0.60 0.94 -0.25 -0.30 0.07 0.22 0.53 0.50
-0.68 0.63 0.76 -0.87 -0.03 -0.29 0.60 -0.27 0.85 0.40
-0.54 0.02 0.41 0.08 0.16 -0.08 0.84 0.93 -0.67 -0.01
0.65 0.01 0.79 -0.72 0.01 0.59 0.19 -0.96 -0.98 -1.01
-0.05 -0.12 -0.15 0.99 0.43 -0.01 0.30 0.29 -0.44 0.03
0.59 -0.92 -0.71 -0.23 0.37 0.94 0.02 -0.25 -0.45 -0.54
-0.43 0.24 0.75 0.00 0.20 -0.55 0.52 -0.69 0.52 -0.24
0.66 0.21 0.22 -0.32 -0.84 -0.48 -0.02 -0.28 -0.19 0.46
0.62 -0.88 0.43 -0.27 -0.04 0.32 0.57 0.79 -0.20 0.29
0.72 -0.80 -0.58 -0.14 0.11 0.99 0.52 -0.13 0.97 0.20
0.42 0.74 -0.48 -0.57 -0.54 0.35 -0.81 0.59 0.22 -0.37
-0.25 -0.96 -0.84 -0.09 0.37 -0.62 -1.00 0.51 -0.80 -0.24
-0.39 0.25 0.01 -0.64 -0.27 0.94 0.89 0.28 0.64 0.37
-1.10 0.62 -0.24 0.93 -0.87 0.28 0.64 0.75 0.68 -0.43
-0.13 -0.07 0.13 -0.32 -0.06 -0.53 0.52 0.19 0.77 -0.54
-0.52 0.53 -0.75 -0.37 0.13 0.55 -0.31 0.33 0.34 0.02
0.72 0.68 -0.12 0.88 -0.23 -0.50 -0.39 -0.41 -1.03 0.35
-0.60 0.49 -0.36 0.12 -0.49 -0.30 0.07 0.88 0.49 0.70
-0.02 -0.19 -0.16 0.39 0.21 -0.64 -0.80 0.12 0.21 0.06
-0.05 0.95 0.10 -0.48 -0.30 -0.51 -0.81 -0.51 -0.15 -0.24
-0.51 -0.71 -0.62 0.36 0.07 -0.04 -0.47 -0.57 -0.25 -0.86
0.00 0.28 0.69 -0.52 0.72 -0.15 0.05 0.47 -0.93 0.43
-0.04 -0.49 -0.76 0.39 0.34 0.23 0.86 0.25 -0.25 0.05
0.16 -0.61 0.76 -0.67 -0.96 0.19 -0.40 -0.95 -0.47 0.52
0.41 0.30 -0.56 -0.17 -0.14 0.43 0.80 0.45 0.73 -0.99
0.14 0.14 0.00 0.75 0.81 0.20 0.69 -0.27 -0.19 0.37

